svm_type c_svc
kernel_type rbf
gamma 0.125
nr_class 2
total_sv 1443
rho 1.02052
label -1 1
nr_sv 618 825
SV
2.796619830558615 1:-0.591397 2:-0.623276 3:-0.779377 4:-0.900129 5:-0.629586 6:-0.527542 7:-0.0536009 8:-0.10838 9:0.0381667 10:-0.459048 11:-0.0258056 12:-0.134137 13:-0.407091 14:-0.463146 15:-0.457615 16:-0.504602 17:0.740023 18:0.956181 19:0.952104 20:0.999009 21:0.497593 22:0.371407 23:-0.609447 24:0.193493 25:0.506406 26:0.589191 27:0.972159 28:0.961683 29:0.899012 30:0.968501 31:0.893409 32:0.851791 33:0.624858 34:0.910707 35:0.823529 36:0.995528 37:0.925774 38:0.676542 39:0.17501 40:0.61342 41:0.976639 42:0.705591 43:0.984249 44:0.985358 45:0.93415 46:0.926634 47:0.964443 48:0.941025 49:0.73721 50:0.0438664 51:0.497464 52:0.978962 53:0.782498 54:0.711743 55:0.203532 56:0.797681 57:0.839349 58:0.736268 59:0.987951 60:1 61:0.931867 62:0.882316 63:0.856795 64:0.865362 65:0.807607 66:0.9733 67:0.907893 68:0.973031 69:0.933469 70:0.648141 71:0.202077 72:0.435667 73:0.996014 74:0.926757 75:0.982372 76:1 77:0.925177 78:0.935805 79:0.99782 80:0.959788 81:-0.0644972 82:0.271303 83:-0.710796 84:-0.637213 
0.413954641032464 1:-0.680352 2:-0.876371 3:-0.879291 4:-0.894441 5:-0.486938 6:-0.43325 7:-0.582055 8:-0.631997 9:-0.584508 10:-0.689524 11:-0.927957 12:-0.90972 13:-0.513279 14:-0.562933 15:-0.703287 16:-0.421962 17:0.485837 18:0.972719 19:1 20:0.610177 21:0.00307183 22:0.338197 23:0.99198 24:0.371635 25:0.36421 26:0.465697 27:1 28:0.4432 29:0.0772353 30:0.28085 31:0.636731 32:-0.0375388 33:0.866181 34:0.992148 35:0.977638 36:0.985472 37:0.811511 38:0.798931 39:0.899991 40:0.933873 41:0.895317 42:0.931311 43:1 44:0.99903 45:0.525 46:0.448159 47:0.740003 48:0.187799 49:0.497468 50:0.515368 51:0.588625 52:0.566596 53:0.857215 54:0.871397 55:1 56:1 57:0.948059 58:0.970181 59:0.996988 60:1 61:0.34793 62:0.276809 63:0.467555 64:0.35444 65:0.76112 66:0.983435 67:1 68:0.977526 69:0.808814 70:0.812686 71:0.8295 72:0.882461 73:0.904221 74:0.909778 75:1 76:1 77:0.482999 78:0.377098 79:0.643553 80:0.0157116 81:-0.157013 82:0.831388 83:-0.866701 84:-0.85123 
1.93461571271134 1:-0.473119 2:-0.876371 3:-0.951311 4:-0.845769 5:-0.66246 6:0.356825 7:0.267059 8:-0.622168 9:-0.884897 10:-0.192857 11:-0.195161 12:-0.874327 13:-0.811001 14:-0.613044 15:-0.809522 16:-0.83876 17:0.813883 18:1 19:1 20:0.943171 21:0.675584 22:0.424865 23:0.46947 24:0.807483 25:0.823489 26:0.481039 27:0.617859 28:0.930516 29:0.792071 30:0.951871 31:0.976012 32:0.933288 33:1 34:1 35:1 36:1 37:0.88086 38:0.596896 39:0.339806 40:0.866796 41:0.945801 42:0.232572 43:0.230766 44:0.989261 45:1 46:0.637425 47:0.94222 48:1 49:0.521433 50:0.537274 51:0.58785 52:0.49773 53:0.846806 54:-0.291131 55:-0.467941 56:0.844683 57:0.975954 58:0.587132 59:0.453309 60:0.95909 61:0.645571 62:0.440186 63:0.636079 64:0.686126 65:1 66:1 67:1 68:1 69:0.890342 70:0.335668 71:0.554301 72:0.888553 73:0.980051 74:0.589107 75:0.469876 76:0.974506 77:1 78:0.930043 79:0.967108 80:1 81:0.794079 82:-0.909694 83:-0.842153 84:-0.805925 
0.1281579900798118 1:-0.565492 2:-0.68111 3:-0.802707 4:-0.910875 5:-0.78867 6:-0.00248094 7:-0.191973 8:-0.818182 9:-0.626618 10:0.0747603 11:-0.00913781 12:-0.739933 13:-0.880097 14:-0.766433 15:-0.61614 16:-0.794296 17:0.715093 18:1 19:0.84672 20:0.778656 21:0.705388 22:0.667076 23:-0.214441 24:0.625485 25:0.73768 26:0.445523 27:0.328856 28:0.683748 29:0.747518 30:0.7209 31:0.76464 32:0.776609 33:0.983138 34:0.994124 35:0.931773 36:0.996639 37:0.960934 38:0.461885 39:0.348157 40:0.92642 41:0.976639 42:0.342493 43:0.586644 44:0.958039 45:0.981186 46:0.681017 47:0.821111 48:0.942054 49:0.942837 50:0.992117 51:0.878465 52:0.96748 53:0.995277 54:0.441607 55:0.129632 56:0.822379 57:0.992303 58:0.441156 59:0.68073 60:0.914073 61:0.425796 62:0.185444 63:0.00316487 64:0.241182 65:0.987103 66:0.93278 67:0.966714 68:1 69:0.98314 70:0.541359 71:0.395929 72:0.856129 73:0.993615 74:0.514066 75:0.527677 76:0.979811 77:0.995464 78:0.864871 79:0.722527 80:0.943209 81:-0.554502 82:0.088993 83:0.231386 84:-0.024408 
3.861641691560053 1:-0.458945 2:-0.606295 3:-0.654104 4:-0.568279 5:-0.857352 6:-0.367743 7:-0.129163 8:-0.782146 9:-0.800115 10:-0.288573 11:0.0860215 12:-0.765581 13:-0.663664 14:-0.460965 15:-0.380015 16:-0.62587 17:0.762093 18:0.750318 19:0.962626 20:0.744767 21:0.801834 22:0.400572 23:0.0655353 24:0.6475 25:0.823489 26:0.348661 27:0.403743 28:0.658801 29:0.849515 30:0.825897 31:0.86856 32:0.727916 33:0.736552 34:0.958792 35:0.868224 36:0.771944 37:1 38:0.842639 39:0.440735 40:0.95063 41:0.933656 42:0.808637 43:-0.0157743 44:0.942428 45:0.78837 46:0.857522 47:0.814457 48:0.533369 49:0.503929 50:0.503979 51:0.520849 52:0.427889 53:0.968797 54:0.988785 55:0.406984 56:0.986463 57:1 58:0.972521 59:0.794432 60:0.967264 61:0.198706 62:0.145946 63:0.30538 64:0.266151 65:0.861857 66:0.999085 67:0.894573 68:0.798878 69:1 70:0.97462 71:0.26005 72:0.973668 73:1 74:0.713265 75:0.317994 76:0.986198 77:0.867341 78:0.954949 79:0.876061 80:0.859228 81:-0.295116 82:0.570049 83:-0.0266131 84:-0.775749 
5.405446720630586 1:-0.705767 2:-0.794128 3:-0.781406 4:-0.352104 5:-0.957734 6:-0.0332522 7:-0.0715482 8:-0.960688 9:-0.959574 10:-0.12619 11:0.13441 12:-0.943062 13:-0.883146 14:-0.473168 15:-0.603691 16:-0.876039 17:0.858976 18:0.996693 19:0.955937 20:0.793619 21:0.810614 22:0.784538 23:0.598746 24:0.928172 25:0.823489 26:0.820014 27:0.77052 28:0.935851 29:0.89702 30:0.594926 31:0.563905 32:0.934366 33:0.934675 34:1 35:0.963519 36:0.832306 37:1 38:0.898005 39:0.887038 40:1 41:1 42:0.884202 43:0.887853 44:1 45:0.947092 46:0.432229 47:0.533369 48:0.976194 49:0.396041 50:0.346217 51:0.170242 52:-0.265743 53:1 54:0.633192 55:0.769186 56:0.909201 57:1 58:0.706448 59:0.818531 60:1 61:0.475269 62:0.114991 63:0.209648 64:0.44984 65:0.749507 66:0.991718 67:0.866803 68:0.492141 69:1 70:0.706795 71:0.542195 72:0.995947 73:0.995221 74:0.50066 75:0.627625 76:0.997889 77:0.929712 78:0.0704336 79:0.289286 80:0.944385 81:-0.0909662 82:-0.618944 83:-0.430074 84:-0.206005 
2.547412563880787 1:-0.410069 2:-0.595685 3:-0.674898 4:-0.55248 5:-0.161725 6:-0.0674949 7:-0.138134 8:-0.267266 9:-0.172947 10:-0.575714 11:-0.52527 12:-0.240316 13:-0.65655 14:-0.673181 15:-0.63108 16:-0.68785 17:0.43979 18:0.497309 19:0.604313 20:0.755741 21:-0.021481 22:-0.541522 23:-0.306297 24:-0.166671 25:-0.125282 26:0.0468064 27:0.0523302 28:-0.632969 29:0.239603 30:0.629925 31:0.809924 32:0.58076 33:0.319282 34:0.668309 35:0.516479 36:0.479028 37:0.35742 38:-0.252054 39:-0.0824092 40:0.680496 41:0.0925262 42:0.542684 43:0.721036 44:0.194158 45:0.367446 46:0.457723 47:0.132276 48:0.231246 49:0.0115243 50:-0.0411227 51:0.0377884 52:0.292034 53:-0.590536 54:-0.568172 55:-0.871196 56:-0.516535 57:0.161129 58:-0.109068 59:-0.0406571 60:0.477095 61:0.363346 62:0.430894 63:0.321991 64:0.351759 65:-0.184004 66:0.544197 67:0.658155 68:0.56967 69:0.12653 70:-0.129106 71:-0.0272554 72:0.594744 73:0.114132 74:0.615896 75:0.531597 76:-0.122664 77:0.251711 78:0.469105 79:0.152212 80:0.136378 81:-0.579226 82:-0.202532 83:-0.476347 84:-0.257426 
1.728529322356478 1:-0.873412 2:-0.735232 3:-0.716994 4:-0.599885 5:-0.0278825 6:0.402979 7:-0.484769 8:-0.843298 9:-0.19765 10:0.165238 11:-0.298387 12:-0.580403 13:-0.834372 14:-0.616968 15:-0.294528 16:-0.748484 17:0.716046 18:0.909877 19:0.691511 20:0.42671 21:0.171412 22:0.232087 23:0.202854 24:0.34962 25:0.23838 26:0.279254 27:-0.0916942 28:0.365703 29:0.517817 30:0.370086 31:-0.196376 32:0.749092 33:0.90412 34:0.731121 35:0.535305 36:0.522639 37:0.116204 38:0.213221 39:0.427783 40:0.83511 41:0.38319 42:0.0696886 43:0.62464 44:0.801951 45:0.85419 46:0.216385 47:0.341146 48:0.666847 49:0.531583 50:0.43824 51:0.520056 52:0.304467 53:0.850589 54:0.695338 55:0.744545 56:0.902828 57:0.904771 58:0.765307 59:0.437499 60:0.536833 61:0.669108 62:0.493613 63:0.672466 64:0.728044 65:0.985788 66:0.627066 67:0.481689 68:0.561797 69:0.438621 70:0.172863 71:0.411519 72:0.843969 73:0.0486927 74:0.139794 75:0.671743 76:0.70474 77:0.631518 78:-0.165298 79:0.488902 80:0.785858 81:-0.468941 82:-0.338092 83:-0.309773 84:-0.123633 
2.10070403622176 1:-0.456502 2:-0.579766 3:-0.683013 4:-0.851458 5:-0.630173 6:-0.559801 7:-0.785596 8:-0.852034 9:-0.553629 10:-0.160954 11:0.0973138 12:-0.963068 13:-0.567131 14:-0.363792 15:-0.436867 16:-0.769593 17:0.505976 18:0.739554 19:0.772948 20:0.816558 21:0.562471 22:0.505877 23:0.865362 24:0.790228 25:0.528478 26:0.366429 27:0.651474 28:0.807575 29:0.508912 30:0.572188 31:0.543469 32:0.784027 33:0.809261 34:0.543683 35:0.584706 36:1 37:0.751941 38:0.670725 39:0.724083 40:1 41:0.880363 42:0.458292 43:0.961082 44:1 45:0.96354 46:0.662946 47:0.934435 48:1 49:0.422778 50:0.364617 51:0.348653 52:0.525471 53:0.962171 54:0.7782 55:0.901459 56:1 57:0.335261 58:-0.277823 59:0.299699 60:1 61:0.432285 62:-0.0406518 63:0.289556 64:0.473923 65:0.653968 66:0.528548 67:0.758039 68:1 69:0.601677 70:0.34267 71:0.929899 72:1 73:0.870708 74:0.400628 75:0.765799 76:1 77:0.95239 78:0.655975 79:0.905683 80:1 81:-0.0546686 82:-0.0858244 83:-0.369895 84:-0.603155 
2.165789268863362 1:-0.595308 2:-0.738946 3:-0.632801 4:-0.54173 5:-0.667743 6:-0.209431 7:-0.656671 8:-0.653836 9:-0.586753 10:-0.010477 11:-0.842473 12:-0.877404 13:-0.355779 14:-0.477089 15:-0.648923 16:-0.899843 17:0.746744 18:0.947081 19:0.877357 20:0.959125 21:0.580009 22:0.35601 23:0.703075 24:0.825666 25:0.497431 26:0.349484 27:0.809884 28:0.941208 29:0.891091 30:0.9965 31:1 32:0.974588 33:0.801903 34:0.781156 35:0.831772 36:0.960861 37:0.79785 38:0.468667 39:0.708324 40:0.795993 41:0.932704 42:0.540733 43:0.998158 44:1 45:0.821294 46:0.955352 47:0.998896 48:1 49:0.246661 50:0.368123 51:0.384486 52:0.18297 53:0.738067 54:0.338887 55:0.852199 56:0.936274 57:0.804714 58:-0.3618 59:0.879526 60:1 61:0.28953 62:0.23964 63:0.394783 64:0.547036 65:0.70302 66:0.965933 67:0.788015 68:0.87529 69:0.785387 70:0.490599 71:0.960197 72:0.88956 73:0.936147 74:0.401516 75:1 76:1 77:0.994338 78:0.982761 79:1 80:1 81:-0.608253 82:0.0811112 83:0.547955 84:-0.557313 
2.799835643323391 1:-0.454058 2:-0.569684 3:-0.735252 4:-0.85209 5:-0.0214256 6:-0.122085 7:-0.261395 8:-0.71608 9:-0.108378 10:0.118572 11:-0.127958 12:-0.688638 13:-0.713961 14:-0.768612 15:-0.963481 16:-0.934426 17:0.642186 18:0.988434 19:0.876404 20:0.907276 21:0.736956 22:0.76266 23:0.374047 24:0.775853 25:0.504782 26:0.615823 27:-0.531449 28:0.609793 29:0.904941 30:0.958871 31:1 32:1 33:0.851415 34:0.881251 35:0.749426 36:1 37:0.667961 38:0.601747 39:-0.109258 40:0.826731 41:0.868218 42:0.662408 43:-0.264157 44:0.631222 45:0.998831 46:0.920267 47:1 48:1 49:0.884734 50:0.863294 51:0.577726 52:0.986617 53:0.649182 54:0.504611 55:0.0420393 56:0.866987 57:0.843197 58:0.598132 59:-0.23644 60:0.613753 61:0.865366 62:0.856747 63:0.97706 64:0.987527 65:0.923806 66:0.901481 67:0.702554 68:0.905609 69:0.922222 70:0.564107 71:0.230634 72:0.713264 73:0.806855 74:0.50157 75:-0.370878 76:0.549667 77:0.936502 78:0.999048 79:1 80:1 81:0.0382351 82:-0.134334 83:0.00519192 84:-0.616315 
8 1:-0.602152 2:-0.738946 3:-0.802707 4:-0.74337 5:-0.730555 6:-0.610422 7:-0.668478 8:-0.824734 9:-0.670414 10:-0.690477 11:-0.61613 12:-0.494228 13:-0.895847 14:-0.8623 15:-0.903309 16:-0.74534 17:0.715093 18:0.987592 19:1 20:0.946169 21:0.631751 22:0.792629 23:0.897465 24:0.806507 25:0.564438 26:0.807099 27:0.952954 28:0.771051 29:0.907918 30:1 31:1 32:0.959778 33:0.870397 34:0.996074 35:1 36:1 37:0.802727 38:0.801851 39:0.829637 40:0.828606 41:0.853263 42:0.638853 43:0.734001 44:0.88488 45:1 46:1 47:1 48:1 49:0.216235 50:0.374264 51:0.440588 52:0.281503 53:0.858155 54:0.826535 55:0.719904 56:0.85345 57:0.661368 58:0.581652 59:0.840365 60:0.839613 61:0.294407 62:0.317846 63:0.322777 64:0.23941 65:0.786946 66:0.993548 67:1 68:1 69:0.882843 70:0.705034 71:0.830382 72:0.78116 73:0.874694 74:0.704342 75:0.791291 76:0.884224 77:0.995464 78:1 79:1 80:1 81:0.0581486 82:0.163705 83:-0.571904 84:-0.730382 
1.490282950467373 1:-0.589443 2:-0.797842 3:-0.870162 4:-0.847666 5:-0.83211 6:-0.237718 7:-0.157969 8:-0.89899 9:-0.753512 10:-0.906667 11:-0.826882 12:-0.868684 13:-0.887718 14:-0.903697 15:-0.899989 16:-0.908826 17:0.422535 18:0.987592 19:1 20:0.641068 21:0.368707 22:0.267712 23:0.323223 24:0.310351 25:0.411623 26:0.964484 27:0.93759 28:0.366588 29:0.874264 30:1 31:1 32:0.877177 33:0.488944 34:0.948965 35:1 36:0.973167 37:1 38:0.0762547 39:-0.0268486 40:1 41:1 42:0.895979 43:0.803523 44:1 45:0.964738 46:1 47:1 48:0.976194 49:0.396957 50:0.324311 51:0.423455 52:0.42884 53:1 54:0.411391 55:-0.0437168 56:1 57:1 58:0.950542 59:0.802702 60:1 61:0.508519 62:0.421601 63:0.416131 64:0.464995 65:0.632024 66:0.988034 67:1 68:0.988777 69:1 70:0.293651 71:0.284284 72:1 73:1 74:0.938365 75:0.844199 76:1 77:0.985266 78:1 79:1 80:0.97278 81:0.666653 82:-0.817613 83:-0.706405 84:-0.711046 
1.799526259096925 1:-0.698437 2:-0.853024 3:-0.948268 4:-0.772446 5:0.5339 6:0.0893297 7:-0.699173 8:-0.607971 9:-0.11006 10:0.186189 11:-0.541934 12:-0.785073 13:-0.607269 14:-0.515 15:-0.99668 16:-0.945655 17:0.829232 18:0.988434 19:1 20:0.968093 21:0.48707 22:0.343873 23:0.323223 24:0.568008 25:0.599565 26:-0.0484308 27:0.313492 28:0.704223 29:0.845554 30:0.709531 31:1 32:0.973536 33:0.837721 34:0.987247 35:1 36:1 37:0.597666 38:0.597862 39:0.212971 40:0.548218 41:0.94392 42:0.758577 43:0.340127 44:0.803915 45:1 46:0.713988 47:1 48:1 49:0.924393 50:1 51:0.896372 52:0.779946 53:0.74091 54:0.78251 55:0.325785 56:0.557145 57:0.955756 58:0.825745 59:0.814003 60:0.842053 61:0.75832 62:0.703451 63:1 64:0.813652 65:0.860541 66:1 67:1 68:1 69:0.811632 70:0.59475 71:0.344881 72:0.469099 73:0.901841 74:0.695398 75:0.294474 76:0.866172 77:0.990929 78:0.862966 79:1 80:1 81:-0.265536 82:0.0389085 83:0.5947 84:-0.629429 
0.7074448657326421 1:-0.695994 2:-0.918288 3:-0.955368 4:-0.922252 5:-0.941884 6:-0.408438 7:-0.786541 8:-0.914278 9:-0.950029 10:-0.71 11:-0.623655 12:-0.916902 13:-0.933952 14:-0.955553 15:-0.962652 16:-0.945655 17:0.95393 18:0.996693 19:1 20:1 21:1 22:0.384369 23:0.828806 24:1 25:0.996731 26:0.870049 27:0.779156 28:1 29:0.999016 30:1 31:1 32:0.997896 33:0.870397 34:0.990198 35:1 36:1 37:1 38:-0.142312 39:0.618529 40:1 41:1 42:0.227671 43:0.591272 44:1 45:1 46:1 47:1 48:1 49:0.71785 50:1 51:1 52:1 53:1 54:0.339767 55:0.625942 56:1 57:1 58:0.701729 59:0.783131 60:1 61:0.923766 62:0.909404 63:0.904268 64:0.919754 65:0.917358 66:1 67:1 68:1 69:1 70:0.105466 71:0.723059 72:1 73:1 74:0.526584 75:0.706025 76:1 77:1 78:1 79:1 80:1 81:0.550142 82:-0.317956 83:-0.953581 84:-0.926106 
6.276314295630378 1:-0.659337 2:-0.788822 3:-0.684028 4:-0.903922 5:-0.957734 6:-0.712655 7:-0.258561 8:-0.51242 9:-0.711402 10:-0.125714 11:0.262367 12:-0.269557 13:-0.574245 14:-0.391681 15:-0.184971 16:-0.55311 17:0.651767 18:0.88426 19:0.870667 20:0.827508 21:0.747478 22:0.838801 23:0.564871 24:0.795987 25:0.61183 26:0.412434 27:0.200196 28:0.800447 29:0.291093 30:0.572188 31:0.696249 32:0.185853 33:0.935722 34:0.854771 35:0.840015 36:1 37:1 38:0.888303 39:0.39723 40:0.892882 41:0.501875 42:0.413157 43:0.585723 44:0.652676 45:0.480302 46:0.110048 47:0.47004 48:0.881022 49:0.236511 50:0.322569 51:0.323718 52:0.465186 53:1 54:0.949069 55:0.810239 56:0.792119 57:0.772971 58:0.697809 59:0.981926 60:0.998373 61:0.550697 62:0.380565 63:0.767412 64:0.760147 65:0.976773 66:1 67:0.795792 68:1 69:1 70:0.881844 71:0.82606 72:0.812552 73:0.687954 74:0.653405 75:0.90592 76:0.899108 77:0.649661 78:0.378051 79:0.845349 80:0.846206 81:0.0458558 82:0.521967 83:-0.639331 84:-0.937981 
0.7774280227952328 1:-0.691593 2:-0.935267 3:-0.791042 4:-0.78256 5:-0.215731 6:-0.255584 7:-0.196694 8:-0.775048 9:-0.906234 10:-0.529525 11:-0.123656 12:-0.311616 13:-0.550366 14:-0.192538 15:-0.369225 16:-0.7404 17:0.713162 18:1 19:0.853409 20:0.487527 21:0.42132 22:0.677602 23:0.135081 24:0.615894 25:0.748299 26:0.73689 27:0.156991 28:0.276607 29:0.597033 30:0.873135 31:0.687356 32:0.64321 33:0.925197 34:0.989198 35:0.651763 36:0.812194 37:0.216806 38:0.276359 39:0.29538 40:0.955282 41:0.996261 42:0.684012 43:0.365135 44:0.493655 45:0.844812 46:0.534285 47:0.541127 48:0.991722 49:0.538044 50:0.553039 51:0.252052 52:0.445099 53:0.0165529 54:0.230142 55:0.410634 56:0.749095 57:0.842241 58:0.416037 59:0.164163 60:0.401802 61:-0.0616341 62:-0.476586 63:0.0102809 64:0.155596 65:0.860541 66:0.988034 67:0.660388 68:0.749435 69:0.149956 70:0.21488 71:0.254868 72:0.799386 73:0.980844 74:0.573016 75:-0.024993 76:0.272432 77:0.673465 78:0.369431 79:0.459307 80:0.850938 81:-0.165078 82:0.584953 83:-0.75938 84:-0.647215 
8 1:-0.698926 2:-0.952777 3:-1 4:-1 5:-1 6:-0.748883 7:-0.724203 8:-1 9:-1 10:-0.53857 11:-0.510752 12:-1 13:-1 14:-1 15:-1 16:-1 17:0.869511 18:0.988434 19:1 20:1 21:1 22:0.993519 23:0.989299 24:1 25:0.984467 26:0.709435 27:0.396061 28:1 29:1 30:1 31:1 32:1 33:0.713381 34:0.970569 35:1 36:1 37:1 38:1 39:0.956472 40:1 41:0.995332 42:0.3739 43:0.389246 44:0.99903 45:1 46:1 47:1 48:1 49:0.576764 50:0.998258 51:1 52:1 53:1 54:0.977569 55:0.991794 56:1 57:0.998088 58:0.296721 59:0.439763 60:1 61:1 62:1 63:1 64:1 65:0.807607 66:0.997232 67:1 68:1 69:1 70:1 71:0.99828 72:1 73:1 74:0.637336 75:0.394422 76:1 77:1 78:1 79:1 80:1 81:0.947408 82:-0.977524 83:-0.953739 84:-0.938672 
1.966223821466843 1:-0.339688 2:-0.440218 3:-0.541509 4:-0.90329 5:-0.263867 6:-0.18809 7:-0.342148 8:-0.351351 9:0.0157082 10:-0.117142 11:-0.171506 12:-0.280328 13:-0.720058 14:-0.821774 15:-0.956427 16:-0.9479 17:0.900209 18:0.961132 19:0.768139 20:1 21:0.865842 22:0.89713 23:0.494417 24:0.377395 25:0.883145 26:0.71106 27:0.986569 28:0.978617 29:0.863365 30:0.947502 31:1 32:1 33:0.959967 34:0.899905 35:0.825896 36:1 37:0.863292 38:0.959212 39:0.22314 40:0.449455 41:0.528046 42:0.818439 43:0.962925 44:0.983419 45:0.917703 46:0.938338 47:1 48:1 49:0.294614 50:0.322569 51:0.136731 52:0.326479 53:0.736164 54:0.660812 55:0.360445 56:0.410596 57:0.188068 58:0.629531 59:0.847887 60:0.501637 61:0.569337 62:0.396052 63:0.443042 64:0.363346 65:0.882517 66:0.855425 67:0.821301 68:0.997767 69:0.555755 70:0.585116 71:0.697105 72:0.401203 73:0.713495 74:0.637336 75:0.809893 76:0.806687 77:0.865087 78:0.990428 79:1 80:1 81:-0.478424 82:-0.304284 83:-0.0564642 84:-0.130227 
4.827321287055429 1:-0.577712 2:-0.708702 3:-0.835674 4:-0.594195 5:-0.529206 6:0.0997503 7:-0.105549 8:-0.94267 9:-0.737791 10:-0.242857 11:-0.266127 12:-0.916902 13:-0.613366 14:-0.45835 15:-0.513223 16:-0.614641 17:0.628743 18:0.904084 19:0.999048 20:0.508485 21:0.765887 22:0.165647 23:0.333038 24:0.888878 25:0.824301 26:0.366429 27:0.398948 28:0.82183 29:0.695044 30:0.855635 31:0.887208 32:0.618851 33:0.787137 34:0.970569 35:0.996463 36:0.745111 37:0.991216 38:0.28121 39:0.748148 40:0.999074 41:0.998142 42:0.796859 43:0.836891 44:1 45:0.876539 46:0.79372 47:0.947769 48:0.870662 49:0.6238 50:0.333958 51:0.456946 52:0.384838 53:1 54:0.520994 55:0.270133 56:1 57:1 58:0.512574 59:0.424701 60:0.996726 61:0.528792 62:0.357343 63:0.369464 64:0.580911 65:0.826984 66:0.991718 67:1 68:0.732572 69:0.981254 70:0.5466 71:0.643454 72:1 73:0.995221 74:0.748111 75:0.958852 76:1 77:0.878694 78:0.911827 79:0.993432 80:0.970429 81:-0.674895 82:-0.0645156 83:-0.129117 84:0.0810345 
4.5057990798872 1:-0.642231 2:-0.826495 3:-0.550131 4:-0.473466 5:-0.393016 6:-0.444665 7:0.0635171 8:-0.489491 9:-0.479511 10:-0.202382 11:-0.169354 12:-0.334702 13:-0.830816 14:-0.752053 15:-0.585432 16:-0.466427 17:0.727558 18:0.975204 19:0.650305 20:0.421731 21:0.434457 22:0.285545 23:0.131514 24:-0.0718519 25:0.769559 26:0.512504 27:0.24915 28:0.520719 29:0.911879 30:0.75503 31:0.612764 32:0.503472 33:0.893568 34:0.992148 35:1 36:0.806583 37:0.54688 38:0.304524 39:0.841669 40:0.590135 41:0.715885 42:0.442589 43:0.835947 44:0.854627 45:0.929447 46:0.807537 47:0.735558 48:0.851021 49:0.534355 50:0.614402 51:0.310477 52:-0.0351582 53:0.416548 54:0.470943 55:0.739082 56:0.774585 57:0.474759 58:0.697809 59:0.736449 60:0.573656 61:0.386863 62:0.489746 63:0.372629 64:0.244749 65:0.949632 66:0.991718 67:0.963378 68:0.785393 69:0.745078 70:0.625393 71:0.651238 72:0.641341 73:0.885085 74:0.879415 75:0.942174 76:0.94582 77:0.998873 78:0.888825 79:0.830006 80:0.776393 81:-0.325025 82:-0.42006 83:-0.70413 84:-0.583995 
0.2197077738224883 1:-0.634897 2:-0.966572 3:-0.925952 4:-0.505069 5:-0.7059 6:-0.49578 7:-0.446044 8:-0.49495 9:-0.959574 10:-1 11:-0.986559 12:-0.899461 13:-0.923791 14:-0.958603 15:-0.962652 16:-0.933977 17:0.669046 18:1 19:1 20:0.790621 21:0.571251 22:0.625755 23:0.428438 24:0.434872 25:0.687019 26:1 27:1 28:0.807575 29:0.718809 30:1 31:1 32:0.83272 33:0.955752 34:0.996074 35:0.977638 36:0.807722 37:0.60742 38:0.505593 39:0.310196 40:0.591987 41:1 42:1 43:1 44:1 45:0.974145 46:1 47:1 48:1 49:0.982473 50:1 51:1 52:0.905294 53:0.551767 54:0.227569 55:-0.0300248 56:0.751489 57:1 58:1 59:1 60:1 61:0.43553 62:0.515295 63:0.576733 64:0.567551 65:0.947065 66:1 67:1 68:0.883135 69:0.624172 70:0.447713 71:0.286026 72:0.590691 73:1 74:1 75:1 76:1 77:0.978449 78:1 79:1 80:1 81:-0.417985 82:-0.472286 83:-0.475679 84:-0.318125 
1.673029287447305 1:-0.615347 2:-0.896003 3:-0.904143 4:-0.699124 5:-0.824479 6:-0.660051 7:-0.193388 8:-0.499316 9:-0.00506412 10:-0.212381 11:-0.668279 12:-0.741985 13:-0.783566 14:-0.835719 15:-0.902479 16:-0.86481 17:0.799488 18:1 19:1 20:0.814551 21:0.792205 22:0.93358 23:0.531881 24:0.659971 25:0.472903 26:0.853103 27:0.871339 28:0.807575 29:0.802969 30:1 31:1 32:0.79355 33:1 34:1 35:1 36:1 37:1 38:0.904811 39:0.267588 40:0.850016 41:0.721504 42:0.780181 43:0.999079 44:1 45:1 46:1 47:1 48:1 49:0.545421 50:0.614402 51:0.580049 52:0.585732 53:1 54:0.608166 55:-0.182382 56:0.766629 57:0.486304 58:0.204103 59:0.966864 60:0.99754 61:0.443631 62:0.309323 63:0.507126 64:0.462336 65:0.994835 66:1 67:1 68:0.989894 69:1 70:0.64551 71:0.350923 72:0.745689 73:0.577818 74:0.459578 75:0.99216 76:1 77:0.997746 78:1 79:1 80:0.997648 81:-0.789438 82:-0.337809 83:-0.0461459 84:0.337039 
3.624747014534326 1:-0.698926 2:-0.894411 3:-0.830095 4:-0.232637 5:-0.262108 6:0.00793965 7:-0.268004 8:-0.200111 9:-0.302646 10:-0.186666 11:-0.123656 12:-0.395228 13:-0.915154 14:-0.89106 15:-0.890444 16:-0.862115 17:0.835953 18:0.992563 19:0.912826 20:0.696906 21:0.775539 22:0.202097 23:0.363346 24:0.272033 25:0.634713 26:0.382573 27:0.37397 28:0.689083 29:0.953455 30:0.986 31:0.943152 32:0.931183 33:0.964182 34:0.998049 35:0.782341 36:0.548361 37:0.635737 38:0.626993 39:0.503704 40:0.162564 41:0.293462 42:0.218844 43:0.221485 44:0.686831 45:0.858894 46:0.98724 47:0.95779 48:0.901717 49:0.27892 50:0.203371 51:0.402412 52:-0.0820358 53:0.933812 54:0.658239 55:0.484534 56:0.31661 57:0.780667 58:0.573793 59:0.658129 60:0.837966 61:0.979727 62:0.939609 63:0.771363 64:0.824331 65:0.916074 66:0.990802 67:0.887899 68:0.414612 69:0.30365 70:0.609626 71:0.170919 72:-0.0182262 73:0.447733 74:0.215723 75:0.314074 76:-0.343582 77:0.989802 78:0.79589 79:0.64685 80:0.544526 81:-0.561878 82:-0.0590593 83:0.313637 84:0.0207083 
4.50665196411861 1:-0.486314 2:-0.880085 3:-0.951311 4:-0.850826 5:-0.348986 6:-0.192061 7:-0.161748 8:-0.357357 9:-0.81359 10:-0.232858 11:-0.110214 12:-0.561426 13:-0.869428 14:-0.921999 15:-0.890444 16:-0.826634 17:0.668093 18:1 19:1 20:0.727822 21:0.550206 22:0.579583 23:0.302707 24:0.292144 25:0.70172 26:0.341402 27:0.209786 28:0.580397 29:0.648523 30:0.99913 31:1 32:0.702504 33:1 34:1 35:1 36:1 37:0.771474 38:0.461885 39:0.280564 40:0.970188 41:0.988784 42:0.284607 43:0.675625 44:0.827307 45:1 46:1 47:1 48:1 49:0.566614 50:0.613509 51:0.657194 52:0.578078 53:0.886514 54:0.358745 55:0.278339 56:0.774585 57:1 58:0.682909 59:0.741725 60:0.88461 61:0.652886 62:0.675574 63:0.704114 64:0.687921 65:0.993552 66:1 67:1 68:1 69:0.732899 70:0.354045 71:0.130256 72:0.745689 73:0.991215 74:0.347028 75:0.241542 76:0.825821 77:0.995464 78:0.997119 79:1 80:1 81:-0.29573 82:0.314094 83:0.250432 84:-0.778098 
2.526873482201913 1:-0.679373 2:-0.911921 3:-0.921894 4:-0.903922 5:-0.590844 6:-0.224316 7:-0.443683 8:-0.315861 9:-0.74116 10:-0.52143 11:0.426881 12:-0.204923 13:-0.632162 14:-0.671003 15:-0.646848 16:-0.533347 17:0.466651 18:0.969411 19:0.936774 20:0.909282 21:0.456373 22:0.515599 23:0.786889 24:0.00190399 25:0.423054 26:0.631966 27:-0.0667398 28:0.093988 29:0.432673 30:0.844266 31:0.995564 32:0.386989 33:0.626978 34:0.969569 35:0.98705 36:0.991056 37:0.793944 38:0.268587 39:0.631482 40:0.40196 41:0.854215 42:0.215893 43:-0.0213241 44:0.344403 45:0.757782 46:0.669313 47:0.832236 48:0.523009 49:0.472564 50:0.751108 51:0.693027 52:0.851713 53:0.756018 54:0.170591 55:0.406078 56:0.831146 57:0.990391 58:0.728428 59:0.310233 60:0.812611 61:0.49798 62:0.464966 63:-0.166932 64:-0.0209589 65:0.695289 66:1 67:1 68:0.993272 69:0.77414 70:0.418831 71:0.494587 72:0.591698 73:0.8763 74:0.309518 75:0.38069 76:0.241634 77:0.879821 78:0.358883 79:0.900206 80:0.397845 81:-0.50775 82:-0.210727 83:-0.553236 84:-0.393264 
0.4968802403221457 1:-0.592376 2:-0.860983 3:-0.933052 4:-0.899497 5:-0.649545 6:-0.199007 7:-0.459739 8:-0.549004 9:-0.89332 10:-0.776191 11:-0.659677 12:-0.810207 13:-0.928871 14:-0.939865 15:-0.950617 16:-0.924545 17:0.827301 18:1 19:1 20:0.950157 21:0.693994 22:0.539892 23:0.52118 24:0.74139 25:0.821844 26:0.769177 27:0.637064 28:0.921596 29:0.928706 30:1 31:1 32:0.982007 33:1 34:1 35:1 36:1 37:0.862297 38:0.71832 39:0.837045 40:0.863996 41:1 42:1 43:0.969419 44:1 45:1 46:1 47:1 48:1 49:0.397874 50:0.383039 51:0.451506 52:0.403975 53:0.943257 54:0.275884 55:0.275619 56:0.725999 57:1 58:0.985081 59:0.984938 60:1 61:0.482564 62:0.454904 63:0.443042 64:0.479263 65:1 66:1 67:1 68:1 69:0.877231 70:0.808314 71:0.954994 72:0.949349 73:1 74:0.998224 75:0.948066 76:1 77:1 78:1 79:1 80:1 81:-0.0178819 82:-0.284952 83:-0.615729 84:-0.488392 
6.192770524782674 1:-0.655426 2:-0.890166 3:-0.47152 4:-0.187762 5:-0.795715 6:-0.327048 7:-0.669421 8:-0.621622 9:-0.909041 10:-0.795238 11:-0.694086 12:-0.775327 13:-0.885686 14:-0.793886 15:-0.753085 16:-0.830676 17:0.786069 18:0.996693 19:0.996167 20:1 21:0.594039 22:0.515599 23:0.868929 24:0.982769 25:0.783447 26:0.939477 27:0.989431 28:0.996436 29:0.808898 30:0.884526 31:1 32:0.994712 33:0.954678 34:1 35:0.998831 36:1 37:0.919926 38:0.531804 39:0.947223 40:0.960884 41:0.987855 42:0.810587 43:1 44:1 45:1 46:1 47:1 48:0.995861 49:0.730749 50:0.697649 51:0.809896 52:0.877529 53:0.935692 54:0.247405 55:0.990887 56:0.996814 57:0.969213 58:0.804566 59:0.994724 60:0.999187 61:0.749393 62:0.773135 63:0.859173 64:0.843074 65:0.979339 66:1 67:1 68:1 69:0.942831 70:0.642008 71:0.945468 72:0.991894 73:0.951317 74:0.877618 75:0.99216 76:0.994695 77:1 78:1 79:1 80:1 81:-0.735893 82:-0.220928 83:0.293241 84:0.600359 
2.184398636820467 1:-0.469208 2:-0.630705 3:-0.480649 4:-0.407096 5:0.101263 6:-0.230769 7:-0.110743 8:-0.208846 9:-0.775971 10:-0.27238 11:0.168819 12:-0.770197 13:-0.919218 14:-0.758154 15:-0.739805 16:-0.943858 17:0.50886 18:0.772628 19:0.682894 20:0.539376 21:0.369578 22:0.432151 23:0.122607 24:0.335245 25:0.517858 26:0.351088 27:0.0273759 28:0.437865 29:0.759401 30:0.748899 31:0.735333 32:0.870837 33:0.833506 34:0.858696 35:0.760008 36:0.858028 37:0.734373 38:0.278289 39:0.182418 40:0.742897 41:0.970091 42:0.350345 43:0.185354 44:0.977553 45:1 46:0.958522 47:0.967783 48:1 49:-0.0751483 50:-0.0682984 51:0.00739508 52:-0.140395 53:-0.24444 54:0.0920612 55:-0.357544 56:0.0633102 57:0.826848 58:0.189203 59:0.196531 60:0.84124 61:0.389301 62:0.209454 63:0.391618 64:0.384748 65:0.440914 66:0.701653 67:0.516105 68:0.743823 69:0.0852885 70:0.0818481 71:-0.0411035 72:0.128666 73:0.844374 74:-0.0469088 75:-0.359118 76:0.7334 77:0.964842 78:0.896493 79:0.793817 80:0.997648 81:-0.744389 82:-0.153459 83:-0.31654 84:-0.0605685 
2.666644924848051 1:-0.588954 2:-0.793067 3:-0.551147 4:-0.882431 5:-0.95656 6:0.396527 7:0.687365 8:-0.563198 9:-0.746213 10:0.0704759 11:0.814515 12:0.114133 13:-0.906009 14:-0.87363 15:-0.73856 16:-0.83876 17:0.809093 18:1 19:1 20:0.864419 21:0.747478 22:0.922228 23:0.961649 24:0.793108 25:0.426323 26:0.819212 27:0.989431 28:0.807575 29:0.773276 30:0.926502 31:1 32:0.938602 33:0.984186 34:0.99705 35:1 36:1 37:1 38:0.961143 39:0.786109 40:1 41:0.562623 42:0.675185 43:0.899896 44:0.843912 45:0.830702 46:0.928774 47:0.998896 48:0.957581 49:0.545421 50:0.614402 51:0.657194 52:0.579052 53:1 54:1 55:1 56:1 57:0.708505 58:0.839104 59:1 60:1 61:0.422552 62:0.503675 63:0.582277 64:0.529201 65:0.996118 66:1 67:1 68:1 69:1 70:0.776802 71:0.676332 72:1 73:0.700725 74:0.837423 75:0.912786 76:0.992558 77:0.837874 78:0.917589 79:1 80:1 81:0.832065 82:-0.912957 83:-0.876198 84:-0.939507 
6.004664762048344 1:-0.595308 2:-0.897594 3:-0.746411 4:-0.563225 5:-0.858527 6:-0.771216 7:-0.744982 8:-0.85804 9:-0.546329 10:-0.485713 11:-0.413978 12:-0.593742 13:-0.94767 14:-0.961217 15:-0.963481 16:-0.955087 17:0.609581 18:0.993385 19:0.807441 20:0.585255 21:0.592296 22:0.812072 23:0.705756 24:0.517243 25:0.631444 26:0.761897 27:0.767633 28:0.599101 29:0.984157 30:1 31:1 32:0.983059 33:0.825075 34:0.992148 35:0.723527 36:0.920639 37:1 38:0.689165 39:0.695371 40:1 41:0.963542 42:0.869474 43:0.784064 44:0.942428 45:1 46:1 47:1 48:1 49:0.563865 50:0.566192 51:0.371244 52:0.453705 53:1 54:0.593498 55:0.776486 56:1 57:0.797973 58:0.597352 59:0.585851 60:0.828979 61:1 62:1 63:1 64:1 65:0.762436 66:0.967763 67:0.74585 68:0.73595 69:1 70:0.604384 71:0.702287 72:1 73:0.796484 74:0.550687 75:0.518863 76:0.784387 77:1 78:1 79:1 80:1 81:-0.496511 82:-0.153764 83:-0.0754006 84:0.115614 
1.889555059523361 1:-0.570872 2:-0.686417 3:-0.666784 4:-0.90329 5:-0.434108 6:-0.455582 7:-0.516884 8:-0.658204 9:-0.554749 10:-0.68524 11:-0.498924 12:-0.360348 13:-0.0834578 14:-0.256595 15:0.0486638 16:0.698632 17:0.521325 18:0.768499 19:0.940607 20:0.940174 21:0.324851 22:0.543133 23:0.664724 24:0.690601 25:0.758107 26:0.872476 27:0.795498 28:0.738091 29:0.756424 30:0.868765 31:0.799265 32:0.761798 33:0.857751 34:0.59962 35:0.811777 36:1 37:0.403329 38:0.199609 39:0.263884 40:0.673969 41:0.776632 42:0.736997 43:0.462453 44:0.347312 45:0.741334 46:0.78841 47:0.515591 48:0.187799 49:0.387747 50:0.0552767 51:0.475647 52:0.494853 53:0.213238 54:0.0549408 55:0.245492 56:0.516535 57:0.224639 58:0.607551 59:0.778622 60:0.698034 61:0.450925 62:0.574916 63:0.449372 64:0.0601737 65:0.656566 66:0.575496 67:0.751393 68:1 69:0.540758 70:0.41533 71:0.605372 72:0.828764 73:0.938547 74:0.862436 75:0.41597 76:0.513538 77:0.527199 78:0.62914 79:0.413225 80:-0.0623613 81:-0.147558 82:-0.36181 83:-0.455972 84:-0.483501 
0.08159175190715336 1:-0.719452 2:-0.540503 3:-0.64954 4:-0.964603 5:-0.827414 6:0.241686 7:0.217472 8:-0.779416 9:-0.726561 10:0.922381 11:0.908067 12:-0.896384 13:-0.985266 14:-0.651392 15:-0.730262 16:-1 17:0.890627 18:0.503924 19:0.469244 20:0.968093 21:1 22:0.280674 23:-0.0352269 24:1 25:0.850454 26:0.150125 27:0.0369663 28:1 29:1 30:1 31:1 32:1 33:0.841936 34:0.65063 35:0.575293 36:1 37:0.979496 38:0.651297 39:0.697212 40:1 41:0.991594 42:0.964668 43:0.983328 44:1 45:0.996465 46:1 47:1 48:1 49:0.832176 50:0.78266 51:0.858971 52:0.984691 53:1 54:0.67548 55:0.73269 56:0.996814 57:0.962473 58:0.900323 59:0.754523 60:1 61:0.987022 62:1 63:1 64:1 65:0.826984 66:0.742172 67:0.450609 68:0.998883 69:0.994388 70:0.794309 71:0.756819 72:1 73:0.985643 74:0.901743 75:0.769719 76:1 77:1 78:1 79:1 80:1 81:0.237464 82:-0.538325 83:-0.39201 84:-0.596296 
6.835576905530222 1:-0.622677 2:-0.773965 3:-0.835674 4:-0.475993 5:-0.491048 6:-0.14392 7:-0.380401 8:-0.457823 9:-0.0230331 10:-0.219049 11:-0.0440846 12:-0.217748 13:-0.81913 14:-0.788221 15:-0.823632 16:-0.945205 17:0.523232 18:0.96859 19:0.913778 20:0.759729 21:0.495828 22:0.62819 23:0.304502 24:0.117809 25:0.369124 26:0.649714 27:0.56504 28:0.282849 29:0.815836 30:0.959762 31:0.980469 32:0.896249 33:0.756582 34:0.896954 35:0.88588 36:0.811056 37:0.824226 38:0.220993 39:0.62037 40:0.543543 41:0.29532 42:0.456341 43:0.138077 44:0.187322 45:0.91183 46:0.79372 47:0.862217 48:1 49:0.384058 50:0.362004 51:0.287885 52:-0.0217748 53:0.977303 54:0.77732 55:0.49274 56:0.397851 57:0.514198 58:0.686049 59:0.630269 60:0.640756 61:0.421726 62:0.601235 63:0.51265 64:0.360666 65:0.950947 66:0.999085 67:0.901219 68:0.928083 69:0.987821 70:0.877472 71:0.720457 72:0.60791 73:0.703917 74:0.690049 75:0.38853 76:0.508234 77:0.89909 78:0.999048 79:0.9649 80:1 81:-0.582499 82:-0.0534633 83:0.319725 84:-0.339816 
0.6498835879958099 1:-0.558652 2:-0.541034 3:-0.517672 4:-0.682689 5:-0.732316 6:-0.330025 7:-0.317119 8:-0.596506 9:-0.804045 10:-0.23762 11:-0.0526893 12:-0.677353 13:-0.764768 14:-0.877987 15:-0.248049 16:-0.671683 17:0.295907 18:0.895004 19:0.952104 20:0.245275 21:0.388859 22:0.492915 23:0.519386 24:-0.00671157 25:0.412435 26:0.0169458 27:-0.261651 28:-0.0360811 29:0.476241 30:0.933502 31:0.639401 32:0.371126 33:0.859845 34:0.841018 35:0.888247 36:0.776417 37:0.801757 38:0.267597 39:0.153706 40:0.590135 41:0.942062 42:0.662408 43:0.622798 44:0.818532 45:0.977651 46:0.996803 47:0.968888 48:0.998972 49:0.266937 50:0.246312 51:0.316711 52:0.227922 53:0.617979 54:0.253453 55:-0.141329 56:0.526094 57:0.995196 58:-0.144387 59:-0.233428 60:0.758586 61:0.485002 62:0.447151 63:0.31171 64:0.448068 65:0.763719 66:0.887662 67:0.942281 68:0.839331 69:0.643849 70:0.340931 71:0.359589 72:0.628175 73:0.976858 74:0.223757 75:0.164141 76:0.871477 77:0.969378 78:0.996166 79:0.924323 80:0.962139 81:0.287402 82:-0.416525 83:-0.305173 84:-0.705651 
1.32758137749061 1:-0.70088 2:-0.953838 3:-1 4:-1 5:-0.583799 6:0.677421 7:-0.563638 8:-0.583402 9:-0.587877 10:1 11:-0.660215 12:-0.686586 13:-0.904992 14:-0.70499 15:-1 16:-1 17:0.932837 18:0.994207 19:1 20:1 21:1 22:0.744022 23:0.730725 24:0.601542 25:1 26:0.897503 27:0.749407 28:0.921596 29:1 30:1 31:1 32:1 33:0.740767 34:0.97547 35:1 36:1 37:0.92871 38:0.780467 39:0.490751 40:0.543543 41:1 42:0.850845 43:0.514358 44:0.699509 45:1 46:1 47:1 48:1 49:0.702156 50:1 51:1 52:1 53:1 54:0.153328 55:0.399685 56:0.60494 57:1 58:0.860284 59:0.587348 60:0.685753 61:1 62:0.945804 63:1 64:1 65:0.905744 66:1 67:1 68:1 69:1 70:0.831062 71:0.897881 72:0.70619 73:1 74:0.938365 75:0.614891 76:0.838568 77:1 78:1 79:1 80:1 81:0.590851 82:-0.601417 83:-0.797517 84:-0.735405 
2.383090907025929 1:-0.72043 2:-0.899186 3:-0.801186 4:-0.506335 5:-0.0449062 6:0.577667 7:-0.370957 8:-0.498773 9:-0.106129 10:0.220476 11:-0.0612906 12:-0.826109 13:-0.739364 14:-0.70935 15:-0.813672 16:-0.861666 17:0.860883 18:1 19:0.784446 20:0.71286 21:-0.241563 22:-0.0749336 23:0.082484 24:0.79118 25:0.359317 26:0.60371 27:0.0590579 28:0.918032 29:0.809907 30:0.929133 31:0.788606 32:0.976719 33:0.873539 34:0.953866 35:0.861179 36:0.724972 37:0.359361 38:-0.516261 39:0.523145 40:0.751276 41:0.616822 42:0.04906 43:0.32251 44:0.97268 45:0.630816 46:0.694834 47:0.441136 48:0.96897 49:0.650537 50:0.610896 51:0.513048 52:0.0710295 53:0.784401 54:0.45368 55:0.969896 56:0.875755 57:0.0235682 58:0.0235883 59:0.774842 60:0.740591 61:0.471198 62:0.480453 63:0.566452 64:0.332152 65:0.918641 66:0.897798 67:0.71364 68:0.487646 69:0.29054 70:-0.0564466 71:0.77499 72:0.577499 73:0.662413 74:0.16301 75:0.207261 76:0.793941 77:0.75057 78:0.775746 79:0.626003 80:0.943209 81:-0.508484 82:-0.352459 83:-0.0880636 84:0.00583245 
4.792637914544401 1:-0.439395 2:-0.615315 3:-0.817415 4:-0.108115 5:-0.72762 6:-0.550374 7:-0.312397 8:-0.31859 9:-0.677151 10:-0.622381 11:-0.322044 12:-0.45627 13:-0.771372 14:-0.821774 15:-0.73607 16:-0.744891 17:0.0186975 18:0.560972 19:0.755689 20:0.86541 21:0.330124 22:0.420014 23:0.301821 24:0.204988 25:0.49333 26:0.530272 27:0.604428 28:0.0770542 29:0.771283 30:0.74453 31:0.565692 32:0.351002 33:0.567963 34:0.550535 35:0.868224 36:0.964222 37:0.454091 38:-0.0276708 39:0.307413 40:0.609693 41:0.973829 42:0.603545 43:0.493978 44:0.775601 45:0.542617 46:0.48858 47:0.550016 48:0.697876 49:0.497468 50:0.11836 51:0.765487 52:0.81249 53:0.704021 54:0.278478 55:0.152436 56:0.579449 57:0.493976 58:0.536913 59:0.351657 60:0.503284 61:0.686137 62:0.879218 63:0.619469 64:0.79759 65:0.417687 66:0.560785 67:0.901219 68:0.884279 69:0.92972 70:0.346172 71:0.60363 72:0.466052 73:0.747008 74:0.570352 75:0.480662 76:0.655864 77:0.552159 78:0.512227 79:0.45601 80:0.553991 81:-0.408065 82:-0.60129 83:-0.384237 84:-0.223273 
1.141745373599922 1:-0.468232 2:-0.267243 3:-0.404573 4:-0.84008 5:-0.864984 6:0.172207 7:-0.0380175 8:-0.923014 9:-0.647955 10:-0.230001 11:-0.0946227 12:-0.637341 13:-0.829799 14:-0.892803 15:-0.908288 16:-0.849989 17:0.489674 18:0.995871 19:1 20:0.354943 21:0.494957 22:0.806396 23:0.786002 24:0.310351 25:0.381388 26:0.428577 27:0.403743 28:0.0823889 29:0.501974 30:0.995631 31:0.99733 32:0.345715 33:0.915692 34:0.694789 35:0.975299 36:0.947444 37:1 38:0.915503 39:0.816661 40:1 41:0.680379 42:0.342493 43:0.691376 44:0.764887 45:0.862429 46:0.929831 47:0.971124 48:0.92033 49:0.301991 50:0.258593 51:0.311251 52:0.395346 53:1 54:0.672028 55:0.88414 56:1 57:0.923033 58:0.944281 59:0.919434 60:0.935361 61:0.423358 62:0.38676 63:0.369464 64:0.341058 65:0.916074 66:0.977899 67:0.766919 68:0.970798 69:1 70:0.749682 71:0.902203 72:1 73:0.774136 74:0.610547 75:0.592369 76:0.840679 77:0.930839 78:0.96645 79:0.94626 80:0.952674 81:0.510205 82:-0.551895 83:-0.637776 84:-0.706038 
2.532400316365151 1:-0.707235 2:-0.80527 3:-0.946746 4:-0.822382 5:-0.709422 6:0.619853 7:-0.131051 8:-0.188096 9:-0.390798 10:0.0004752 11:-0.00376243 12:-0.109001 13:-0.762227 14:-0.875809 15:-0.864715 16:-0.818549 17:0.687255 18:0.946259 19:1 20:0.91825 21:0.513366 22:-0.223976 23:0.399903 24:0.536402 25:0.718878 26:0.693292 27:0.184832 28:0.351448 29:0.871287 30:1 31:1 32:0.937523 33:0.942032 34:0.918558 35:1 36:1 37:0.84473 38:-0.109271 39:0.662035 40:0.795993 41:0.75982 42:0.0942186 43:0.41612 44:0.642931 45:0.96354 46:1 47:0.998896 48:0.996889 49:0.465187 50:0.264712 51:0.477989 52:0.465186 53:0.911115 54:-0.0106365 55:0.358632 56:0.608918 57:0.614232 58:0.493735 59:0.451064 60:0.722596 61:0.407136 62:0.439417 63:0.351261 64:0.292915 65:1 66:0.927266 67:1 68:1 69:0.980323 70:0.202636 71:0.867583 72:0.93719 73:0.856351 74:0.674845 75:0.445382 76:0.857674 77:1 78:1 79:1 80:1 81:-0.607193 82:-0.447735 83:-0.0733026 84:0.0367202 
3.239579512471478 1:-0.502445 2:-0.624338 3:-0.938124 4:-0.874214 5:-0.473437 6:-0.454591 7:-0.0847707 8:-0.401036 9:-0.818082 10:-0.626191 11:-0.786021 12:-0.665555 13:-0.869936 14:-0.870144 15:-0.961821 16:-0.923647 17:0.606697 18:0.926414 19:0.993287 20:0.997003 21:0.504608 22:0.570687 23:0.00221553 24:0.452103 25:0.72706 26:0.726401 27:0.882862 28:0.748783 29:0.72277 30:0.843396 31:0.994681 32:0.947072 33:0.84932 34:0.943088 35:0.995294 36:0.992167 37:0.825197 38:0.656148 39:-0.248148 40:0.407539 41:0.987855 42:0.867523 43:0.877674 44:0.962936 45:0.995296 46:0.996803 47:0.986666 48:0.987583 49:0.490091 50:0.575838 51:0.795861 52:0.903368 53:0.953666 54:0.880039 55:-0.385834 56:0.416968 57:1 58:1 59:0.919434 60:0.970537 61:0.903493 62:0.917157 63:0.647933 64:0.742312 65:0.900579 66:0.897798 67:0.988914 68:0.989894 69:0.789137 70:0.54486 71:-0.0757239 72:0.535962 73:0.947331 74:0.784732 75:0.89024 76:0.922464 77:1 78:1 79:0.970378 80:0.997648 81:0.608331 82:-0.837597 83:-0.73689 84:-0.762463 
1.179265798012693 1:-0.400781 2:-0.86682 3:-1 4:-0.627697 5:-0.0243602 6:0.0223316 7:-0.340733 8:-0.284193 9:-0.0814261 10:-0.250952 11:-0.418818 12:-0.640933 13:-0.925315 14:-0.960782 15:-0.963481 16:-0.934426 17:0.351534 18:0.918156 19:1 20:0.617138 21:-0.320472 22:0.25475 23:0.714662 24:0.504796 25:-0.0648135 26:0.493131 27:0.892453 28:0.585753 29:0.756424 30:0.994761 31:1 32:0.818961 33:0.844057 34:0.967618 35:1 36:0.602 37:0.740246 38:0.430799 39:0.630562 40:0.885429 41:0.97571 42:0.921484 43:0.798895 44:0.854627 45:0.988256 46:0.980873 47:1 48:1 49:0.784223 50:0.941294 51:1 52:0.567571 53:0.74373 54:0.585735 55:0.234543 56:0.33173 57:0.795105 58:0.608331 59:0.250753 60:0.715215 61:0.356051 62:0.315518 63:0.341766 64:0.23407 65:0.95223 66:0.982497 67:1 68:0.561797 69:0.660732 70:0.474832 71:0.685858 72:0.788259 73:0.70949 74:0.918722 75:0.759931 76:0.853426 77:0.950108 78:0.972212 79:1 80:1 81:0.301394 82:-0.566999 83:-0.711216 84:-0.621503 
0.4541423130037988 1:-0.593354 2:-0.724619 3:-0.784956 4:0.426632 5:-0.884943 6:-0.459057 7:-0.471074 8:-0.179907 9:-0.317808 10:0.124287 11:0.381722 12:-0.378815 13:-0.641816 14:-0.942916 15:-0.946467 16:-0.886818 17:0.663278 18:0.923107 19:0.922396 20:0.433696 21:0.810614 22:0.580388 23:0.619262 24:0.572792 25:0.520295 26:-0.159009 27:0.039853 28:0.460134 29:0.67524 30:1 31:1 32:1 33:0.927291 34:0.805686 35:0.98705 36:0.676917 37:0.991216 38:0.50849 39:0.630562 40:0.89846 41:0.695334 42:0.0853917 43:0.113045 44:0.694637 45:0.980017 46:1 47:1 48:1 49:0.843242 50:0.960565 51:0.965716 52:0.326479 53:0.889358 54:0.79201 55:0.673388 56:0.733975 57:0.338154 58:-0.0266502 59:-0.103916 60:0.57693 61:0.592048 62:0.654662 63:0.721511 64:0.687921 65:0.958679 66:0.984351 67:0.751393 68:0.503364 69:1 70:0.62013 71:0.578535 72:0.79128 73:0.820439 74:0.229129 75:0.203341 76:0.819434 77:0.996591 78:1 79:1 80:1 81:0.605051 82:-0.619668 83:-0.67242 84:-0.575143 
6.563254395265681 1:-0.687685 2:-0.925716 3:-0.955368 4:-0.851458 5:-0.579101 6:-0.345408 7:-0.48666 8:-0.267266 9:-0.302084 10:0.10762 11:0.173656 12:-0.223904 13:-0.937508 14:-0.961653 15:-0.963481 16:-0.944756 17:0.526116 18:0.983463 19:1 20:0.830505 21:0.591403 22:0.458075 23:0.264379 24:0.00287979 25:0.563626 26:0.183215 27:0.0360121 28:0.496658 29:0.843561 30:1 31:0.995564 32:0.883543 33:0.379345 34:0.94799 35:1 36:0.994417 37:0.682617 38:0.245273 39:0.373142 40:0.688875 41:0.64766 42:0.070664 43:0.233529 44:0.52781 45:0.97061 46:0.990436 47:0.968888 48:1 49:0.411712 50:0.433863 51:0.516165 52:0.376209 53:0.917741 54:0.382913 55:0.778299 56:0.923529 57:0.883593 58:0.532194 59:0.582072 60:0.794595 61:0.442824 62:0.454904 63:0.443042 64:0.381181 65:0.47322 66:0.956712 67:1 68:1 69:0.863166 70:0.599991 71:0.510176 72:0.851069 73:0.664813 74:0.249659 75:0.26214 76:0.637813 77:0.978449 78:0.995214 79:0.989045 80:1 81:-0.0629688 82:-0.600896 83:-0.527048 84:-0.517643 
5.338034976945956 1:-0.644674 2:-0.863636 3:-0.643962 4:-0.211779 5:-0.738186 6:-0.330025 7:-0.245808 8:-0.336064 9:-0.700733 10:-0.144761 11:-0.100536 12:-0.676327 13:-0.457389 14:-0.169006 15:-0.521939 16:-0.920054 17:0.675767 18:0.841263 19:0.947296 20:0.911264 21:0.750114 22:0.520449 23:0.854661 24:0.565128 25:0.995106 26:0.74818 27:0.710997 28:0.917146 29:0.896036 30:0.780398 31:0.877432 32:0.998948 33:0.339312 34:0.662408 35:0.780003 36:0.555056 37:0.390614 38:-0.0626425 39:0.682418 40:0.812774 41:0.913082 42:0.619224 43:0.662637 44:0.91123 45:0.735462 46:0.710791 47:0.742239 48:0.950332 49:0.368364 50:0.796684 51:0.848072 52:0.391518 53:0.469508 54:0.0894665 55:0.563898 56:0.906014 57:0.924969 58:0.64287 59:0.892323 60:0.99754 61:0.829677 62:0.581111 63:0.841776 64:0.985732 65:0.653968 66:0.734805 67:0.963378 68:0.832575 69:0.605426 70:0.353175 71:0.823458 72:0.885507 73:0.683968 74:0.712377 75:0.856932 76:0.954318 77:0.729019 78:0.620521 79:0.866196 80:0.970429 81:-0.221863 82:0.808814 83:-0.704993 84:-0.59471 
0.9250974785718548 1:-0.635387 2:-0.527237 3:-0.618093 4:-0.896969 5:-0.878485 6:-0.449133 7:-0.458324 8:-0.738466 9:-0.943291 10:-0.896667 11:-0.895699 12:-0.944601 13:-0.940557 14:-0.907619 15:-0.655978 16:-0.704019 17:0.88486 18:0.488229 19:0.551633 20:1 21:0.791312 22:0.859049 23:0.802951 24:0.964562 25:0.810412 26:0.972566 27:0.953908 28:1 29:0.952471 30:0.980761 31:0.839231 32:0.918477 33:0.981044 34:0.355246 35:0.335302 36:0.997778 37:0.951179 38:-0.0451688 39:0.194451 40:0.725191 41:0.994404 42:0.819439 43:0.911963 44:0.980486 45:1 46:0.921324 47:0.557801 48:0.779629 49:0.343483 50:-0.312814 51:-0.0923223 52:0.263318 53:0.731441 54:0.130897 55:0.537443 56:0.947436 57:0.967301 58:0.899523 59:0.761296 60:0.987719 61:0.43958 62:0.368175 63:0.166932 64:0.241182 65:0.994835 66:0.404244 67:0.566047 68:1 69:0.918472 70:0.283146 71:0.496328 72:0.854115 73:1 74:0.800801 75:0.889266 76:0.99364 77:1 78:0.992333 79:0.572264 80:0.808345 81:0.531879 82:-0.716112 83:-0.661733 84:-0.873141 
1.781817435097222 1:-0.685728 2:-0.113902 3:-0.996957 4:-0.954489 5:-0.348986 6:-0.134987 7:-0.469658 8:-0.960688 9:-0.618759 10:-0.270476 11:-0.0548388 12:0.320853 13:-0.604221 14:-0.60128 15:-0.574226 16:-0.508646 17:0.994208 18:0.556843 19:1 20:1 21:0.769395 22:0.432151 23:0.462336 24:1 25:0.879064 26:0.898305 27:0.743633 28:0.947428 29:0.992078 30:1 31:0.920068 32:1 33:0.955752 34:0.297359 35:1 36:1 37:0.451179 38:-0.0995692 39:0.538881 40:1 41:0.906533 42:0.52503 43:0.756246 44:0.733665 45:1 46:0.926634 47:0.962234 48:0.890329 49:0.793457 50:0.282241 51:0.994541 52:1 53:0.367371 54:0.186138 55:0.325785 56:1 57:0.921121 58:0.909742 59:0.606919 60:0.351884 61:0.888883 62:0.907865 63:0.742093 64:0.866249 65:0.925122 66:0.370177 67:1 68:1 69:0.496722 70:-0.0214325 71:0.382941 72:1 73:0.877887 74:0.768641 75:0.764825 76:0.696242 77:0.975068 78:0.920471 79:0.927621 80:0.930187 81:-0.541468 82:-0.164532 83:-0.149967 84:0.208023 
8 1:-0.373412 2:-0.827556 3:-0.958411 4:-0.956385 5:0.292046 6:-0.182134 7:-0.410152 8:-0.668032 9:0.0488357 10:-0.593808 11:-0.133872 12:-0.439858 13:-0.812525 14:-0.868837 15:-0.614066 16:-0.902987 17:-0.0417446 18:0.990078 19:1 20:0.982065 21:-0.183678 22:0.772381 23:0.455202 24:0.501916 25:0.908465 26:1 27:0.789725 28:0.96704 29:0.996039 30:1 31:0.992894 32:0.942837 33:0.936769 34:0.993124 35:0.994124 36:1 37:0.751941 38:0.827096 39:0.382414 40:0.725191 41:1 42:1 43:0.939758 44:0.944391 45:1 46:0.726748 47:0.0789405 48:0.856188 49:0.672669 50:0.993859 51:1 52:1 53:0.0893669 54:0.565878 55:-0.15867 56:0.37236 57:-0.458385 58:-0.0227302 59:0.597901 60:0.511458 61:0.43553 62:0.608988 63:0.553007 64:0.522067 65:0.651401 66:0.9733 67:0.960041 68:1 69:0.370204 70:0.132608 71:0.416702 72:0.758855 73:0.997601 74:0.932106 75:0.605103 76:0.224638 77:1 78:0.987547 79:0.866196 80:0.491292 81:-0.626916 82:-0.344078 83:0.0383202 84:-0.291225 
1.842655038900859 1:-0.467254 2:-0.885391 3:-0.774812 4:-0.781928 5:-0.704138 6:-0.28933 7:-0.361511 8:-0.36118 9:-0.665922 10:-0.0214293 11:-0.395699 12:-0.465504 13:-0.802364 14:-0.643984 15:-0.775079 16:-0.770492 17:0.810999 18:1 19:0.863954 20:0.823519 21:0.889523 22:0.381129 23:0.763714 24:0.56608 25:0.769559 26:0.573849 27:0.946226 28:0.55545 29:0.864349 30:0.910764 31:1 32:0.797785 33:0.880922 34:0.993124 35:0.565881 36:0.915028 37:1 38:0.409415 39:0.374085 40:0.853742 41:0.969162 42:-0.325815 43:0.923086 44:0.722926 45:1 46:0.892607 47:0.978881 48:0.996889 49:0.544482 50:0.80633 51:0.776386 52:0.769439 53:0.980146 54:-0.0796878 55:-0.134029 56:0.415365 57:0.980758 58:-0.131827 59:0.713847 60:0.442712 61:0.30414 62:-0.563296 63:-0.125789 64:0.174318 65:0.842479 66:0.995401 67:0.488335 68:0.82473 69:1 70:0.514218 71:0.27478 72:0.695038 73:0.966487 74:-0.16392 75:0.864772 76:0.680302 77:0.994338 78:0.798748 79:0.9649 80:0.985802 81:-0.551205 82:-0.174509 83:0.352456 84:0.586531 
0.8327105201459463 1:-0.578202 2:-0.532542 3:-0.71598 4:-0.690907 5:-0.286176 6:-0.0684854 7:-0.466352 8:-0.581765 9:0.189766 10:-0.15857 11:0.048387 12:-0.201845 13:-0.834372 14:-0.799551 15:-0.897914 16:-0.949697 17:0.716999 18:0.901619 19:0.725029 20:0.66101 21:0.713274 22:0.502637 23:0.463222 24:0.259585 25:0.369936 26:0.744951 27:0.554495 28:0.266801 29:0.886146 30:0.928263 31:0.993777 32:0.932235 33:0.948368 34:0.822365 35:0.891755 36:0.745111 37:0.76172 38:0.0160377 39:0.571297 40:0.614346 41:0.123364 42:0.360147 43:0.236315 44:0.22635 45:0.925912 46:0.807537 47:0.946664 48:1 49:0.320434 50:0.347981 51:0.178798 52:-0.00551501 53:0.968797 54:0.871397 55:0.736339 56:0.642364 57:0.367004 58:0.792786 59:0.670178 60:0.6923 61:0.522303 62:0.677113 63:0.456488 64:0.372275 65:0.997433 66:0.990802 67:0.739176 68:0.892124 69:0.971893 70:0.77243 71:0.784515 72:0.625129 73:0.648849 74:0.679329 75:0.235674 76:0.440251 77:0.950108 78:0.990428 79:0.9649 80:1 81:-0.475224 82:-0.014465 83:-0.273656 84:-0.198583 
3.858486825810389 1:-0.578691 2:-0.894942 3:-0.902114 4:-0.893176 5:-0.91312 6:-0.654095 7:-0.474853 8:-0.779962 9:-0.936553 10:-0.707143 11:-0.715591 12:-0.839446 13:-0.891275 14:-0.948581 15:-0.924473 16:-0.869302 17:0.878139 18:0.990078 19:1 20:1 21:0.865842 22:0.48887 23:0.111906 24:0.815122 25:0.957502 26:0.684428 27:0.591927 28:0.967925 29:1 30:1 31:1 32:1 33:0.986307 34:1 35:1 36:1 37:0.917961 38:0.699856 39:0.497216 40:0.908713 41:0.999071 42:0.733072 43:0.84152 44:0.995128 45:1 46:1 47:1 48:1 49:0.896717 50:1 51:1 52:1 53:0.995277 54:0.646144 55:0.0986206 56:0.792119 57:0.98365 58:0.695449 59:0.813254 60:0.906712 61:1 62:1 63:1 64:0.942042 65:0.962561 66:1 67:1 68:1 69:0.98314 70:0.625393 71:0.375157 72:0.751781 73:0.938547 74:0.675755 75:0.828519 76:0.913966 77:1 78:1 79:1 80:1 81:0.948412 82:-0.897208 83:-0.963953 84:-0.969473 
4.689322054037072 1:-0.586021 2:-0.873718 3:-0.880813 4:-0.847666 5:-0.932492 6:-0.652605 7:-0.667533 8:-0.71062 9:0.238615 10:0.214285 11:0.190324 12:-0.220312 13:-0.0875203 14:-0.335904 15:-0.301998 16:-